{
  "schemaVersion": 1,
  "id": "calibrated-ball-candidate-ranker-v1",
  "calibrationOnly": true,
  "features": [
    "confidence",
    "apparentSize",
    "appearanceConfidence",
    "sourceDetected",
    "sourceColor",
    "sourceMotion",
    "x",
    "y",
    "nearestWristDistance",
    "nearestKneeDistance",
    "nearestHipDistance",
    "xFromHipCenter",
    "yFromHipCenter",
    "yFromKneeCenter"
  ],
  "mean": [
    0.1711931973695755,
    0.029197856783866882,
    0.61504727602005,
    0.08312958478927612,
    0.2738386392593384,
    0.6430317759513855,
    0.5245437622070312,
    0.6371493339538574,
    0.12165386974811554,
    0.1269235908985138,
    0.14029814302921295,
    0.034450843930244446,
    0.08032133430242538,
    6.420687896024901e-06
  ],
  "standardDeviation": [
    0.16974596679210663,
    0.019540581852197647,
    0.14023539423942566,
    0.27624690532684326,
    0.4461999833583832,
    0.4793984293937683,
    0.12180808186531067,
    0.13000169396400452,
    0.1470300257205963,
    0.1268463283777237,
    0.14391334354877472,
    0.14019469916820526,
    0.1301703006029129,
    0.13822859525680542
  ],
  "layers": [
    {
      "weights": [
        [
          -0.04532521963119507,
          -0.49617063999176025,
          0.022856736555695534,
          0.09808402508497238,
          -0.2062557488679886,
          -0.09359157830476761,
          -0.4287590980529785,
          -0.17455236613750458,
          0.49726587533950806,
          -0.08936633914709091,
          -0.2281605750322342,
          -0.8354169130325317,
          -0.3628711700439453,
          -0.5010460019111633
        ],
        [
          -0.31985902786254883,
          -0.7887998223304749,
          0.25074464082717896,
          -0.13618823885917664,
          0.3291608691215515,
          -0.30422377586364746,
          0.3370186984539032,
          0.016446553170681,
          1.163793683052063,
          -0.33273857831954956,
          -0.2702031135559082,
          0.3631775975227356,
          0.1598503589630127,
          -0.2693599760532379
        ],
        [
          0.4903755187988281,
          0.34465494751930237,
          0.8206232190132141,
          0.3681875765323639,
          0.17034180462360382,
          -0.2675876319408417,
          0.09248621016740799,
          0.036103326827287674,
          -0.0418119803071022,
          0.6498015522956848,
          0.2769230604171753,
          -0.4681300222873688,
          -0.126503586769104,
          -0.12296614795923233
        ],
        [
          -0.048942483961582184,
          1.1697850227355957,
          1.1021565198898315,
          -0.020981278270483017,
          -0.40076470375061035,
          0.23441362380981445,
          0.3042154014110565,
          -0.5425377488136292,
          -0.6114798188209534,
          -0.4761783182621002,
          0.566004753112793,
          -0.7877054214477539,
          -0.10906101763248444,
          -0.22041063010692596
        ],
        [
          -0.21246492862701416,
          -0.16297581791877747,
          0.5701736211776733,
          -0.18979737162590027,
          0.0848800539970398,
          0.14687201380729675,
          0.3039311170578003,
          -1.0713878870010376,
          0.6581752300262451,
          -1.0831595659255981,
          -0.3930632770061493,
          -0.19540062546730042,
          -0.2109145224094391,
          0.9947655200958252
        ],
        [
          -0.49298855662345886,
          0.033291373401880264,
          0.8191750645637512,
          -0.6321712732315063,
          -0.029470263049006462,
          0.4056246876716614,
          -0.7290332317352295,
          0.6250731945037842,
          0.7649800181388855,
          -0.4278666377067566,
          0.024202411994338036,
          -0.5404577255249023,
          0.2404344230890274,
          0.642508327960968
        ],
        [
          0.3016098141670227,
          0.24088037014007568,
          0.5595916509628296,
          0.02818821743130684,
          -0.3404005765914917,
          0.4055655598640442,
          -0.5001052618026733,
          -0.3139629662036896,
          -0.2758149802684784,
          -0.029804037883877754,
          -0.9068577885627747,
          -0.266764372587204,
          -0.4660608172416687,
          0.2748717963695526
        ],
        [
          0.11729572713375092,
          0.3099893629550934,
          0.1457313597202301,
          -0.060979537665843964,
          -0.35878461599349976,
          0.24522821605205536,
          1.6708693504333496,
          0.7596524357795715,
          -0.0556429922580719,
          -0.40165838599205017,
          -0.40943795442581177,
          0.3003830909729004,
          -0.9006673097610474,
          0.8448558449745178
        ],
        [
          -0.2901257276535034,
          -0.36143139004707336,
          -0.23673118650913239,
          -0.3246435225009918,
          0.010112810879945755,
          -0.18113292753696442,
          -0.19906869530677795,
          -0.4451153874397278,
          1.050612211227417,
          -1.0828421115875244,
          0.9106764793395996,
          -1.055569052696228,
          0.2677691876888275,
          -0.18242226541042328
        ],
        [
          -1.3728965520858765,
          -0.30635908246040344,
          -0.17765457928180695,
          0.1550115942955017,
          -0.30219483375549316,
          0.028986940160393715,
          0.0270796287804842,
          0.4656180143356323,
          0.6553484797477722,
          -0.2984815835952759,
          -0.7510735988616943,
          -0.3190450668334961,
          0.14608889818191528,
          -0.06840163469314575
        ],
        [
          0.004748121369630098,
          0.39592429995536804,
          0.3801281750202179,
          0.2793031632900238,
          -0.6192335486412048,
          -0.17676083743572235,
          -1.4078142642974854,
          0.30319783091545105,
          -0.13171756267547607,
          0.031366270035505295,
          -0.8981409668922424,
          -0.8847493529319763,
          0.5074411034584045,
          -0.05252183601260185
        ],
        [
          0.014755494892597198,
          0.8620662689208984,
          -0.37668147683143616,
          -0.06888985633850098,
          0.24473068118095398,
          -0.21243342757225037,
          -0.1680787205696106,
          0.36877182126045227,
          0.7228649854660034,
          -0.049723491072654724,
          0.3295570909976959,
          -1.6998486518859863,
          -0.01905539073050022,
          -0.07373067736625671
        ],
        [
          0.9611733555793762,
          0.7639971375465393,
          -0.41353145241737366,
          0.5654246211051941,
          -0.20610037446022034,
          0.11356665194034576,
          -0.8345010876655579,
          -0.42802539467811584,
          -0.2158854454755783,
          0.47697776556015015,
          0.3784633278846741,
          0.05310722440481186,
          0.6333827376365662,
          0.09659776836633682
        ],
        [
          -0.4167850911617279,
          0.07655702531337738,
          0.34122389554977417,
          -0.2731078267097473,
          -0.24470144510269165,
          0.3350701332092285,
          0.3117293417453766,
          0.5403553247451782,
          1.0399372577667236,
          -0.2804974317550659,
          0.5484942197799683,
          0.2248414009809494,
          0.2136221081018448,
          0.001965463859960437
        ],
        [
          0.1277516931295395,
          0.21705403923988342,
          -0.06601427495479584,
          0.31330323219299316,
          -0.2058725506067276,
          0.41690272092819214,
          -0.22505468130111694,
          -0.5888818502426147,
          -0.8230199813842773,
          1.060238003730774,
          -0.5380998253822327,
          -0.021970687434077263,
          -0.5783332586288452,
          0.08360949158668518
        ],
        [
          0.5435563325881958,
          0.47103187441825867,
          -0.17772188782691956,
          0.6229965090751648,
          0.019307106733322144,
          -0.09585312008857727,
          0.692467212677002,
          -0.5353677868843079,
          -0.23017355799674988,
          -0.9236493110656738,
          0.6259340643882751,
          -0.3309509754180908,
          0.7836096882820129,
          1.3207435607910156
        ],
        [
          -0.3869927227497101,
          0.27294352650642395,
          0.6616146564483643,
          0.04551558196544647,
          -0.307490736246109,
          -0.016137676313519478,
          -1.036709189414978,
          0.19488127529621124,
          -0.09323238581418991,
          0.8323999047279358,
          0.42189088463783264,
          0.4695761501789093,
          -0.5484059453010559,
          -0.7934179306030273
        ],
        [
          0.5307421684265137,
          0.16416336596012115,
          0.5639422535896301,
          -0.18140806257724762,
          0.2549729347229004,
          -0.5027998685836792,
          0.024499621242284775,
          0.5977017879486084,
          -0.21583610773086548,
          -0.5598228573799133,
          0.11888288706541061,
          0.373494029045105,
          0.4176770746707916,
          -0.15787510573863983
        ],
        [
          -0.9063759446144104,
          -0.6968340873718262,
          -0.4995073080062866,
          -0.2027323991060257,
          -0.3704701364040375,
          0.6923542618751526,
          -0.5338450074195862,
          -0.29597488045692444,
          0.742642879486084,
          0.3185805678367615,
          -0.5040984153747559,
          -0.8867108821868896,
          0.5785877108573914,
          0.03955922648310661
        ],
        [
          0.49374398589134216,
          0.009424920193850994,
          0.07513066381216049,
          0.37904849648475647,
          -0.4809423089027405,
          -0.02784065529704094,
          -0.6741329431533813,
          -0.1908484250307083,
          -1.1618647575378418,
          -0.3717969059944153,
          -0.7563357949256897,
          -0.6057117581367493,
          -0.18369895219802856,
          0.5658559203147888
        ],
        [
          0.1172834113240242,
          0.8930879235267639,
          -0.07741342484951019,
          0.2553527355194092,
          -0.4462429881095886,
          -0.017687488347291946,
          0.7024210691452026,
          -0.5331286191940308,
          0.3747313320636749,
          -0.23505134880542755,
          0.018751149997115135,
          -0.11961127817630768,
          -0.49164631962776184,
          -0.22919197380542755
        ],
        [
          -0.011672500520944595,
          0.6234722137451172,
          -0.20302623510360718,
          0.3359866738319397,
          -0.03924974426627159,
          0.052692290395498276,
          0.055719535797834396,
          -0.21503588557243347,
          -0.3883906602859497,
          0.6204631328582764,
          0.18487536907196045,
          -0.7564146518707275,
          -0.09928455948829651,
          -0.6363200545310974
        ],
        [
          0.16342894732952118,
          0.11466502398252487,
          1.0764096975326538,
          0.4609632194042206,
          -0.08253860473632812,
          -0.3370903432369232,
          1.0316588878631592,
          0.7076935768127441,
          -0.5030771493911743,
          0.1617613583803177,
          1.070318341255188,
          -0.5653585195541382,
          -0.8199694156646729,
          -0.23033152520656586
        ],
        [
          0.23382434248924255,
          -0.4809710383415222,
          0.3182430863380432,
          0.1566491425037384,
          -0.44264405965805054,
          0.3369274139404297,
          -0.6792674660682678,
          -0.6995952129364014,
          1.103445053100586,
          1.0888080596923828,
          0.03031749092042446,
          -0.5931698083877563,
          -0.30676597356796265,
          -0.6817244291305542
        ],
        [
          -0.7068150639533997,
          -0.34747934341430664,
          -0.3609560430049896,
          -0.07460131496191025,
          0.7645711898803711,
          -0.37006571888923645,
          1.0242425203323364,
          -0.07717382162809372,
          0.6597896814346313,
          0.009823165833950043,
          0.1443028301000595,
          1.507150650024414,
          -0.3431656062602997,
          0.0016932147555053234
        ],
        [
          -0.6007590293884277,
          -0.29911506175994873,
          -0.28738921880722046,
          0.20403818786144257,
          -0.2936108708381653,
          -0.08130490034818649,
          0.19440655410289764,
          -0.23024821281433105,
          1.1242332458496094,
          -0.5815003514289856,
          0.698965311050415,
          -0.315301775932312,
          -0.32658982276916504,
          0.22050900757312775
        ],
        [
          1.1688909530639648,
          0.28209012746810913,
          0.8285782933235168,
          0.08689697831869125,
          0.043623581528663635,
          -0.5027323961257935,
          0.5123646855354309,
          -0.3161526024341583,
          -0.20351850986480713,
          0.08458606153726578,
          0.14358507096767426,
          0.8585614562034607,
          -0.4043578803539276,
          0.029445407912135124
        ],
        [
          0.3178669214248657,
          -0.217095747590065,
          -0.353071928024292,
          -0.71476811170578,
          0.6282238960266113,
          -0.23537375032901764,
          0.8191819787025452,
          0.2692224085330963,
          0.065345898270607,
          -0.5775130987167358,
          0.6011593341827393,
          1.3821566104888916,
          -0.2881540060043335,
          0.32260075211524963
        ],
        [
          -0.15027101337909698,
          -0.5039395689964294,
          0.6780346035957336,
          -0.14042828977108002,
          0.007481872104108334,
          -0.0427653007209301,
          0.1158188059926033,
          0.9492826461791992,
          -0.17640747129917145,
          -0.8252516388893127,
          0.4419057071208954,
          -0.15276047587394714,
          0.5010154247283936,
          -0.44581887125968933
        ],
        [
          0.026616228744387627,
          0.2742152512073517,
          -0.12803047895431519,
          0.1679590940475464,
          0.8176229000091553,
          -0.9183969497680664,
          -0.9836395978927612,
          0.37466809153556824,
          0.010906367562711239,
          -1.2832001447677612,
          -0.04803725332021713,
          -0.5339780449867249,
          0.08560993522405624,
          0.6997861266136169
        ],
        [
          -0.11226912587881088,
          -0.2627548575401306,
          0.7284981608390808,
          0.32211393117904663,
          0.31416958570480347,
          -0.3684370815753937,
          -0.0025104768574237823,
          0.36003825068473816,
          -0.13626015186309814,
          -0.07487506419420242,
          0.3006611764431,
          -0.8731682300567627,
          0.42905983328819275,
          0.1390671581029892
        ],
        [
          0.3883294463157654,
          0.02285901829600334,
          1.0396085977554321,
          0.012514308094978333,
          -0.21678058803081512,
          -0.062383878976106644,
          -0.7650437355041504,
          -0.3408139944076538,
          -0.0975223034620285,
          -0.14067326486110687,
          -0.1255340427160263,
          -0.043537452816963196,
          0.006179602816700935,
          -0.7914411425590515
        ]
      ],
      "bias": [
        -0.09854810684919357,
        0.185227170586586,
        -0.2625465393066406,
        0.3305377960205078,
        0.2776680886745453,
        0.09705926477909088,
        0.5443772673606873,
        0.32562029361724854,
        -0.4207579791545868,
        -0.09225006401538849,
        0.01535531971603632,
        0.377734899520874,
        -0.18168026208877563,
        0.25169363617897034,
        -0.0673254057765007,
        -0.6581276655197144,
        -0.5953525304794312,
        0.20069533586502075,
        0.13835397362709045,
        0.022559497505426407,
        0.061822522431612015,
        0.06306388974189758,
        -0.06744921952486038,
        -0.5989193320274353,
        -0.269400030374527,
        0.00782129168510437,
        0.13196028769016266,
        0.7324399352073669,
        0.2785356044769287,
        0.09141798317432404,
        -0.011009090580046177,
        0.3595474660396576
      ],
      "activation": "relu"
    },
    {
      "weights": [
        [
          -0.02473469264805317,
          0.830134928226471,
          -0.11972831189632416,
          -0.899385929107666,
          0.5421674251556396,
          -1.1627254486083984,
          0.845015823841095,
          -0.4660283625125885,
          1.8936758041381836,
          0.7613412141799927,
          -0.7400187849998474,
          1.3191640377044678,
          -0.6380831599235535,
          0.9811204671859741,
          0.24609270691871643,
          0.893149197101593,
          1.0199774503707886,
          0.4142680764198303,
          -0.47509080171585083,
          0.6309824585914612,
          -0.4856787323951721,
          -0.5721149444580078,
          -0.5650328993797302,
          0.0008603757014498115,
          -0.2889014780521393,
          0.6321971416473389,
          1.0368733406066895,
          -0.38618460297584534,
          0.47164463996887207,
          -0.138559490442276,
          0.6452248692512512,
          0.06389696151018143
        ],
        [
          0.25050702691078186,
          -0.21113048493862152,
          0.49111858010292053,
          0.6132752895355225,
          -1.3930118083953857,
          0.8880429267883301,
          -0.28378933668136597,
          0.018556490540504456,
          -0.8860068917274475,
          0.4280340075492859,
          0.4039261043071747,
          -0.48793184757232666,
          0.9837885499000549,
          -0.002113691531121731,
          -0.4562269151210785,
          -0.9987393021583557,
          -1.0312211513519287,
          0.151713028550148,
          1.0840696096420288,
          -0.6368582844734192,
          0.18537312746047974,
          0.04202114790678024,
          1.0887967348098755,
          0.5777928233146667,
          1.0258421897888184,
          -0.37339791655540466,
          0.015992147848010063,
          0.540489137172699,
          -0.24300426244735718,
          0.6577189564704895,
          -0.7236478924751282,
          0.5806390047073364
        ],
        [
          0.3560870587825775,
          -0.5641335844993591,
          0.6329168081283569,
          0.21889203786849976,
          -0.8010198473930359,
          -0.47744235396385193,
          -0.1276109367609024,
          0.14228534698486328,
          0.02728462591767311,
          -0.044175662100315094,
          0.363778293132782,
          0.014568706043064594,
          0.13068467378616333,
          0.048951033502817154,
          -0.5997973084449768,
          -0.1643214225769043,
          -1.2123247385025024,
          0.5371325016021729,
          0.06252876669168472,
          -0.6398826241493225,
          0.30418840050697327,
          -0.20759767293930054,
          1.2286149263381958,
          0.27393829822540283,
          -0.2810790240764618,
          -0.08504758775234222,
          0.556926429271698,
          -0.1608581393957138,
          -0.2215467393398285,
          0.8133203387260437,
          -0.12177684158086777,
          0.15269264578819275
        ],
        [
          -0.2550705671310425,
          0.5368219017982483,
          -0.7596071362495422,
          0.8958930969238281,
          -0.24447101354599,
          -0.5767994523048401,
          -0.053913455456495285,
          0.3995567858219147,
          1.5059293508529663,
          0.9724438786506653,
          0.5961691737174988,
          0.8940284252166748,
          -0.6013668179512024,
          0.6328158974647522,
          -0.31705865263938904,
          0.8568620681762695,
          0.9710302948951721,
          -0.29887858033180237,
          -0.8007233738899231,
          0.035193946212530136,
          0.05289556086063385,
          0.5876623392105103,
          -0.4494389295578003,
          0.6795947551727295,
          1.9624154567718506,
          1.7090506553649902,
          0.40899163484573364,
          -1.9614713191986084,
          0.9863489866256714,
          -0.329574853181839,
          0.4906856119632721,
          -0.6071039438247681
        ],
        [
          -0.21818625926971436,
          0.750935435295105,
          -0.04861883446574211,
          -0.3563537895679474,
          0.4652845859527588,
          -0.303941011428833,
          0.29563620686531067,
          -0.23561590909957886,
          0.9482014775276184,
          0.6608687043190002,
          -0.19423195719718933,
          0.7840173244476318,
          -0.6908755302429199,
          0.2919221818447113,
          0.28693920373916626,
          1.0873303413391113,
          0.7829847931861877,
          0.42400315403938293,
          -0.3236923813819885,
          0.4692121148109436,
          0.05851825326681137,
          -0.2677066922187805,
          -0.7008817791938782,
          -0.1848304271697998,
          -0.13418520987033844,
          0.5194091796875,
          0.6033217906951904,
          -0.5639513731002808,
          0.32049357891082764,
          -0.15904243290424347,
          0.2659023404121399,
          -0.017183328047394753
        ],
        [
          -0.3606715202331543,
          0.777930736541748,
          -0.015963589772582054,
          0.10271619260311127,
          1.1100820302963257,
          -0.9279922246932983,
          0.675635576248169,
          -0.671074628829956,
          -0.027182212099432945,
          0.8952414393424988,
          -1.5549542903900146,
          0.10929656773805618,
          -0.20137804746627808,
          0.4399932324886322,
          0.3995431661605835,
          0.5016972422599792,
          1.1751623153686523,
          0.5611065626144409,
          -0.1307007074356079,
          -0.019106287509202957,
          -0.682694673538208,
          -0.6677839756011963,
          -0.5424003601074219,
          -1.0234768390655518,
          -0.25349128246307373,
          0.261517196893692,
          0.601227879524231,
          -0.6067525744438171,
          0.42379552125930786,
          0.11029451340436935,
          0.5073015093803406,
          0.6167567372322083
        ],
        [
          -0.39813581109046936,
          -0.003929114900529385,
          0.13214735686779022,
          0.10089050978422165,
          0.21494872868061066,
          0.026656074449419975,
          0.31788209080696106,
          0.4038635492324829,
          0.1393989622592926,
          0.3614793121814728,
          -0.02849683351814747,
          0.14788345992565155,
          -0.21056102216243744,
          0.25506100058555603,
          0.2374996840953827,
          1.2115488052368164,
          1.1671807765960693,
          0.43568626046180725,
          -1.0049657821655273,
          0.45489373803138733,
          -0.06717106699943542,
          -0.154256209731102,
          -0.20186670124530792,
          -1.758376121520996,
          0.2665163576602936,
          0.226167231798172,
          0.565468430519104,
          0.41048774123191833,
          0.5097947120666504,
          -0.5247190594673157,
          0.40702733397483826,
          -0.09315690398216248
        ],
        [
          -0.0779040977358818,
          -0.929495632648468,
          0.48279380798339844,
          0.4353445768356323,
          0.023639032617211342,
          0.7577123641967773,
          0.16492384672164917,
          1.2710882425308228,
          -0.8694064021110535,
          0.05173471197485924,
          0.35884472727775574,
          -0.6653798818588257,
          0.9826869964599609,
          -0.048945847898721695,
          -0.5892569422721863,
          -1.2787768840789795,
          -1.2220008373260498,
          0.1722373217344284,
          1.5249074697494507,
          -0.5703923106193542,
          0.32077258825302124,
          0.07901450991630554,
          1.0952850580215454,
          0.5629717707633972,
          -1.1919867992401123,
          -0.3521231412887573,
          -0.3424525260925293,
          0.5363612174987793,
          -0.3921283781528473,
          0.7879603505134583,
          -0.6089373826980591,
          0.31967464089393616
        ],
        [
          -1.0498579740524292,
          0.3304187059402466,
          0.3314336836338043,
          -0.5501309037208557,
          -0.3876663148403168,
          0.07303886860609055,
          0.23626156151294708,
          -0.008787212893366814,
          0.028599802404642105,
          -0.1472070962190628,
          -1.3447247743606567,
          0.6115446090698242,
          -0.433597207069397,
          0.2828340232372284,
          0.727780818939209,
          0.7340576648712158,
          0.30189746618270874,
          0.4188496470451355,
          0.1899222582578659,
          0.7327183485031128,
          0.13483715057373047,
          0.1491556316614151,
          -0.7812706828117371,
          -0.9202499985694885,
          -0.2629379630088806,
          -0.2554587423801422,
          0.8632033467292786,
          -0.005719838198274374,
          0.539052426815033,
          -0.13522937893867493,
          0.15597376227378845,
          -0.8531203866004944
        ],
        [
          0.19444221258163452,
          0.6617898344993591,
          -0.45414280891418457,
          -1.1148204803466797,
          0.23079067468643188,
          -0.8832039833068848,
          0.5441814661026001,
          -0.04235493764281273,
          1.3892158269882202,
          0.6116740703582764,
          -0.9736824631690979,
          1.2440552711486816,
          -0.9160387516021729,
          0.42879724502563477,
          0.4699333906173706,
          0.3686816692352295,
          0.17962338030338287,
          0.18890447914600372,
          0.08380971848964691,
          0.9224697947502136,
          -0.6897705793380737,
          -0.304237961769104,
          -0.6636373400688171,
          0.22067776322364807,
          -0.07134745270013809,
          0.8496105670928955,
          0.7865609526634216,
          -1.137393832206726,
          0.06440489739179611,
          -0.4593057930469513,
          0.2934824228286743,
          -0.13588477671146393
        ],
        [
          0.3790435194969177,
          -0.7463263869285583,
          0.1492203176021576,
          0.5099334716796875,
          -1.679509162902832,
          -0.1422712504863739,
          -0.04647396504878998,
          0.20285414159297943,
          -0.7881142497062683,
          0.1636238545179367,
          0.12751440703868866,
          -0.36303475499153137,
          0.7901453375816345,
          0.17058536410331726,
          -0.24190591275691986,
          -0.8482487797737122,
          -0.8866245746612549,
          0.3493458330631256,
          0.9058546423912048,
          -0.7848919630050659,
          0.4807232618331909,
          0.24293024837970734,
          0.7287933230400085,
          0.5208922624588013,
          -0.6522226333618164,
          -0.20675693452358246,
          0.2580791711807251,
          0.49026769399642944,
          -0.36785387992858887,
          0.40681901574134827,
          -0.3929510712623596,
          0.5606604814529419
        ],
        [
          0.00273832306265831,
          -4.863989211401076e-09,
          -0.0020428544376045465,
          -0.053606752306222916,
          -0.06779789179563522,
          -0.00017053056217264384,
          -0.02615157887339592,
          -0.011422287672758102,
          -1.0669752315002927e-19,
          -9.743888176492922e-18,
          0.0007863761275075376,
          0.010469449684023857,
          -0.0015741613460704684,
          -1.327468680756283e-06,
          -0.0025772820226848125,
          -0.01442559715360403,
          4.697724134811155e-16,
          -4.2876134102698416e-05,
          0.0014801983488723636,
          -0.01146126538515091,
          -0.06748975068330765,
          -0.003514650510624051,
          -1.8623940434281394e-07,
          0.0002462832781020552,
          1.4541344044282086e-28,
          -0.01789174973964691,
          -4.2799092625500634e-07,
          -0.025933410972356796,
          6.342584556464089e-22,
          -0.0014532984932884574,
          3.3861033870588565e-19,
          -0.038175687193870544
        ],
        [
          0.24628013372421265,
          0.2522546947002411,
          -0.33592933416366577,
          -0.639916718006134,
          0.1910439431667328,
          -0.38525232672691345,
          0.36109939217567444,
          -0.18121337890625,
          1.0308500528335571,
          0.3342991769313812,
          -0.12599937617778778,
          0.7547758221626282,
          -0.6685494184494019,
          0.25403204560279846,
          0.41790148615837097,
          1.4020397663116455,
          0.6312041282653809,
          0.3785456717014313,
          -0.5878778100013733,
          0.485033243894577,
          0.07778139412403107,
          0.1225951611995697,
          -1.3536677360534668,
          -0.33528047800064087,
          0.36476585268974304,
          0.6879099011421204,
          0.501102089881897,
          -0.4245539605617523,
          0.5817723274230957,
          -0.6492636799812317,
          0.6939096450805664,
          -0.3027803897857666
        ],
        [
          -0.4245782494544983,
          0.5937669277191162,
          -0.33545300364494324,
          -0.14557480812072754,
          0.6278203725814819,
          0.21461838483810425,
          0.23414760828018188,
          -0.8424471616744995,
          0.2757469713687897,
          0.2665237784385681,
          -1.2078975439071655,
          0.028925614431500435,
          -0.10906552523374557,
          0.5780608057975769,
          0.3374939560890198,
          0.47960612177848816,
          0.06252825260162354,
          0.5225860476493835,
          0.08141807466745377,
          0.4866180121898651,
          -0.9155620336532593,
          -0.12042517960071564,
          -0.24571947753429413,
          -0.8974229097366333,
          -0.93471759557724,
          0.7303563952445984,
          0.7151139974594116,
          0.2239920198917389,
          0.23518428206443787,
          -0.5444426536560059,
          0.12452332675457001,
          0.10548271238803864
        ],
        [
          -0.12692198157310486,
          0.6090923547744751,
          0.0849684625864029,
          -0.7853847742080688,
          0.4103310704231262,
          -0.5943999886512756,
          0.5649371147155762,
          -0.3896690011024475,
          1.2436050176620483,
          0.4607156813144684,
          -0.8832831382751465,
          0.8663914799690247,
          -0.33146074414253235,
          0.4377281665802002,
          0.46132272481918335,
          0.41527417302131653,
          0.5111475586891174,
          0.6175083518028259,
          0.1314036250114441,
          0.6569222211837769,
          -0.4799818694591522,
          -0.3859160840511322,
          -0.3358011543750763,
          -0.04161923751235008,
          0.08182363957166672,
          0.6871742606163025,
          0.6367393136024475,
          -0.6180697679519653,
          0.5006638765335083,
          0.00788108166307211,
          0.5309514999389648,
          -0.2503834664821625
        ],
        [
          0.2210330367088318,
          -0.4603646695613861,
          0.39495858550071716,
          0.4804753363132477,
          -0.6302367448806763,
          -0.03922901302576065,
          0.39119935035705566,
          -0.05043589323759079,
          -0.4100355803966522,
          -0.8954713940620422,
          0.33836057782173157,
          -0.22010406851768494,
          0.6999371647834778,
          0.13430924713611603,
          -0.26074594259262085,
          -0.36605602502822876,
          -0.8212960958480835,
          0.20676608383655548,
          0.1612577736377716,
          -0.45331621170043945,
          0.3854394853115082,
          0.2862570583820343,
          0.8708548545837402,
          0.696330726146698,
          -1.1638134717941284,
          -0.4538893401622772,
          0.23430904746055603,
          0.23952101171016693,
          -0.5326299667358398,
          0.6739354133605957,
          -0.3806132972240448,
          0.4654875695705414
        ]
      ],
      "bias": [
        -0.12733261287212372,
        0.23241719603538513,
        0.1870027631521225,
        -0.9229919910430908,
        -0.12380887567996979,
        0.08705226331949234,
        -0.1064528152346611,
        0.5765905976295471,
        0.4868895709514618,
        0.224048912525177,
        0.10464541614055634,
        -0.07549057900905609,
        0.09761548787355423,
        0.17913174629211426,
        -0.1299174576997757,
        0.018638432025909424
      ],
      "activation": "relu"
    },
    {
      "weights": [
        [
          -2.797853946685791,
          1.5655407905578613,
          0.8407261967658997,
          -3.916775703430176,
          -1.5324957370758057,
          -2.5532033443450928,
          -1.4045062065124512,
          1.6596770286560059,
          -1.9053385257720947,
          -1.9286633729934692,
          1.5208251476287842,
          -0.0545295812189579,
          -2.302015781402588,
          -1.950234293937683,
          -1.6412864923477173,
          0.9850106835365295
        ]
      ],
      "bias": [
        0.9135710000991821
      ],
      "activation": "linear"
    }
  ],
  "training": {
    "seed": 7,
    "epochs": 1200,
    "provenance": [
      {
        "manifest": "C:\\VSCode\\all-in-basketball\\validation\\manifest.json",
        "observationsDirectory": "C:\\VSCode\\all-in-basketball\\validation\\local\\repeatability\\appearance-a",
        "clips": [
          "behind-back-01-000",
          "behind-back-01-002",
          "between-legs-01-000",
          "between-legs-01-002",
          "between-legs-01-004"
        ]
      },
      {
        "manifest": "C:\\VSCode\\all-in-basketball\\validation\\local\\manifests\\mixed-moves-01.json",
        "observationsDirectory": "C:\\VSCode\\all-in-basketball\\validation\\local\\repeatability\\appearance-a",
        "clips": [
          "mixed-moves-01-000",
          "mixed-moves-01-001",
          "mixed-moves-01-002",
          "mixed-moves-01-003",
          "mixed-moves-01-004"
        ]
      }
    ],
    "metrics": {
      "candidateCoveredFrames": 77,
      "top1Hits": 77,
      "top1Rate": 1.0,
      "candidateSamples": 818,
      "positiveSamples": 188,
      "loss": 0.015995370224118233
    }
  }
}
